digraph Tree {
node [shape=box, style="filled, rounded", color="black", fontname=helvetica] ;
edge [fontname=helvetica] ;
0 [label="petal width (cm) <= 0.8\ngini = 0.66\nsamples = 93\nvalue = [50, 56, 44]\nclass = versicolor", fillcolor="#f3fdf7"] ;
1 [label="gini = 0.0\nsamples = 33\nvalue = [50, 0, 0]\nclass = setosa", fillcolor="#e58139"] ;
0 -> 1 [labeldistance=2.5, labelangle=45, headlabel="True"] ;
2 [label="petal width (cm) <= 1.75\ngini = 0.49\nsamples = 60\nvalue = [0, 56, 44]\nclass = versicolor", fillcolor="#d5f9e4"] ;
0 -> 2 [labeldistance=2.5, labelangle=-45, headlabel="False"] ;
3 [label="petal length (cm) <= 5.35\ngini = 0.1\nsamples = 37\nvalue = [0, 56, 3]\nclass = versicolor", fillcolor="#44e688"] ;
2 -> 3 ;
4 [label="petal length (cm) <= 5.05\ngini = 0.03\nsamples = 35\nvalue = [0, 56, 1]\nclass = versicolor", fillcolor="#3de583"] ;
3 -> 4 ;
5 [label="gini = 0.0\nsamples = 33\nvalue = [0, 54, 0]\nclass = versicolor", fillcolor="#39e581"] ;
4 -> 5 ;
6 [label="petal width (cm) <= 1.55\ngini = 0.44\nsamples = 2\nvalue = [0, 2, 1]\nclass = versicolor", fillcolor="#9cf2c0"] ;
4 -> 6 ;
7 [label="gini = 0.0\nsamples = 1\nvalue = [0, 0, 1]\nclass = virginica", fillcolor="#8139e5"] ;
6 -> 7 ;
8 [label="gini = 0.0\nsamples = 1\nvalue = [0, 2, 0]\nclass = versicolor", fillcolor="#39e581"] ;
6 -> 8 ;
9 [label="gini = 0.0\nsamples = 2\nvalue = [0, 0, 2]\nclass = virginica", fillcolor="#8139e5"] ;
3 -> 9 ;
10 [label="gini = 0.0\nsamples = 23\nvalue = [0, 0, 41]\nclass = virginica", fillcolor="#8139e5"] ;
2 -> 10 ;
}